%YAML:1.0
svm: !!opencv-ml-svm
   svm_type: C_SVC
   kernel: { type:LINEAR }
   C: 1.
   term_criteria: { epsilon:2.2204460492503131e-16, iterations:1000 }
   var_all: 690
   var_count: 690
   class_count: 2
   class_labels: !!opencv-matrix
      rows: 1
      cols: 2
      dt: i
      data: [ -1, 1 ]
   sv_total: 1
   support_vectors:
      - [ -7.76637197e-02, 1.64322928e-02, -3.26201767e-01,
          1.01769261e-01, -2.92928964e-01, -1.98681504e-02,
          -1.59409449e-01, -9.22030285e-02, -1.90337420e-01,
          -1.07918292e-01, -3.00248533e-01, -1.83711603e-01,
          -9.15716588e-02, 7.60973319e-02, 2.34949350e-01,
          -1.62791423e-02, 1.52160645e-01, 1.46222427e-01,
          9.63589326e-02, 3.33717763e-01, 1.53841600e-01, 1.50337731e-02,
          -7.11003244e-02, -1.91901308e-02, 1.13553949e-01,
          -7.13034049e-02, -3.82952988e-02, 8.16402957e-02,
          -4.94742058e-02, 2.37844028e-02, -2.47997567e-02,
          -5.77827618e-02, 3.31710279e-02, -1.33633077e-01,
          -1.49393916e-01, -1.52827159e-01, -9.23571549e-03,
          1.30676508e-01, -7.46588930e-02, -7.41270781e-02,
          -6.43722266e-02, 1.25999883e-01, 1.60210460e-01,
          1.73767373e-01, 6.73545226e-02, 2.69761328e-02, 3.22308904e-03,
          4.16485360e-03, -2.40731034e-02, 2.66822539e-02,
          -1.96069151e-01, 1.43937049e-02, -5.62499976e-03,
          -4.56286930e-02, 2.22208515e-01, 1.61932617e-01,
          -6.66546226e-02, 8.23373944e-02, -8.52514505e-02,
          7.29552656e-02, 6.47040978e-02, 1.17711969e-01, 8.04268569e-02,
          1.03680804e-01, -2.19089031e-01, -6.50183260e-02,
          6.93918020e-03, 3.07255313e-02, 1.29655614e-01, 5.52849025e-02,
          4.66685817e-02, -5.28957434e-02, -1.64312109e-01,
          6.67345822e-02, -9.88780260e-02, -8.76774564e-02,
          5.25786728e-02, 6.16354831e-02, -3.23500708e-02,
          -2.71826517e-02, -3.06800246e-01, 1.03933341e-03,
          -1.76336560e-02, 2.37432942e-02, -2.42410991e-02,
          -1.36845233e-02, -4.06207033e-02, -8.71873796e-02,
          4.66254875e-02, 6.53788447e-02, 2.09150314e-01,
          -2.31649205e-02, -6.56242073e-02, -3.57377715e-02,
          5.14761172e-03, 1.27460659e-01, 1.69551760e-01,
          -3.50130908e-02, 2.67109089e-02, 9.23191160e-02,
          1.16423830e-01, -7.13184923e-02, -9.57853124e-02,
          -4.01085801e-02, -3.22544537e-02, -3.20277363e-02,
          -5.72372936e-02, -5.44425547e-02, -1.82176735e-02,
          7.85674155e-02, 3.59712578e-02, -1.16912402e-01,
          -1.72587018e-03, 1.00547731e-01, -1.60838902e-01,
          -1.30301058e-01, 1.14198245e-01, -2.81582940e-02,
          -1.62842777e-02, 2.30314266e-02, -1.29842162e-01,
          -3.34665775e-02, 1.35475412e-01, 9.41660814e-03,
          1.28955981e-02, -6.21021725e-02, -3.09675019e-02,
          1.73362028e-02, 1.48825198e-02, 2.71412660e-04,
          -7.91181177e-02, 9.93793309e-02, 7.49760792e-02,
          -2.14021802e-02, -2.67511401e-02, 2.26050802e-02,
          2.59063784e-02, 3.58838588e-02, -6.85053021e-02,
          3.71958241e-02, -3.64120454e-02, 1.08814389e-01,
          -1.36635555e-02, -8.71684104e-02, -2.19067838e-02,
          -5.30963466e-02, -5.64259440e-02, 8.59045684e-02,
          -1.10574290e-01, -3.46280523e-02, -9.97977108e-02,
          -4.72901687e-02, 4.02998850e-02, -9.36741531e-02,
          -3.15230116e-02, -7.97263347e-04, -7.57958442e-02,
          6.81727976e-02, -2.30047237e-02, 7.39417151e-02,
          1.46653998e-04, 4.42019217e-02, -7.27892108e-03,
          -6.40836433e-02, 7.77170062e-02, 3.01659480e-02,
          -7.16245994e-02, 3.83372642e-02, -3.51618975e-02,
          9.94730741e-02, 5.06103933e-02, -2.12721247e-02,
          -4.56797928e-02, 1.10680163e-01, -1.54315196e-02,
          4.25068513e-02, 5.88240549e-02, 3.48087251e-02,
          -1.85325556e-02, 1.88364759e-01, 1.83258116e-01,
          -2.48438939e-02, 1.64363652e-01, -3.51410992e-02,
          1.07111916e-01, 1.06249809e-01, 1.79609060e-02, 6.48101345e-02,
          -5.77146634e-02, 2.98771355e-03, 5.18239252e-02,
          -1.07424490e-01, -1.52853101e-01, 5.47179617e-02,
          -4.61348938e-03, -1.31257251e-01, 1.86317284e-02,
          -5.00470623e-02, -5.15776575e-02, -6.06733970e-02,
          4.29343767e-02, 4.65629110e-03, -2.82191895e-02,
          1.04784258e-01, 2.83503346e-02, -3.20233428e-03,
          6.07248135e-02, -1.81277189e-02, 1.19921423e-01,
          5.07963859e-02, 1.44741591e-02, -1.05753308e-02,
          2.22624019e-02, 3.09829134e-03, -5.04419068e-03,
          2.32502911e-03, -6.77944571e-02, 4.36859541e-02,
          1.38308793e-01, -2.98331548e-02, -4.76840176e-02,
          -9.45833474e-02, -3.99434865e-02, 6.47890940e-02,
          8.30501094e-02, 9.94642824e-02, -2.38922704e-02,
          5.94605925e-03, -2.38965377e-02, -9.59298387e-02,
          -6.97732493e-02, 5.84680699e-02, -7.85239711e-02,
          -5.00320159e-02, 2.51375902e-02, -3.46395187e-02,
          1.50484815e-01, -3.50847207e-02, -1.82524398e-02,
          -1.53481308e-02, -3.21726017e-02, -8.94574672e-02,
          -4.76078764e-02, 2.13696645e-03, -3.37310098e-02,
          -2.77950671e-02, -1.75692737e-02, -9.01138783e-02,
          7.61045739e-02, 1.91029564e-01, 5.51718920e-02, 6.07354492e-02,
          -1.49344141e-02, -3.24669927e-02, 1.09844774e-01,
          3.18968110e-02, 8.46770033e-03, -5.34553342e-02,
          9.29723307e-02, -4.23059613e-02, -1.02535628e-01,
          2.75047943e-02, 3.56399529e-02, -1.40064107e-02,
          -3.67666371e-02, 7.14348778e-02, 5.55919968e-02,
          8.95680338e-02, -4.99049760e-03, -1.11741014e-01,
          -6.14151731e-02, -8.97825696e-03, -1.49767734e-02,
          1.00602433e-02, 9.47075058e-03, -3.80835943e-02,
          2.26554237e-02, 4.68673259e-02, 4.82053030e-03,
          -5.27995713e-02, -2.83314660e-02, -4.21951525e-02,
          -6.05306774e-02, 3.06164436e-02, -3.49258408e-02,
          -2.24650418e-03, -3.60517460e-03, -8.31012800e-03,
          -1.16696037e-01, 4.29294370e-02, 2.96527632e-02,
          -6.08131066e-02, 1.88866574e-02, -3.97780724e-02,
          -3.65706645e-02, -9.76394936e-02, -6.12397045e-02,
          3.91198508e-02, -4.39931229e-02, 1.42421033e-02,
          -1.65051166e-02, 3.18923555e-02, -9.00257844e-03,
          -1.69530809e-02, 1.01032276e-02, -1.72342418e-03,
          -2.86984481e-02, 5.05671510e-03, -1.83895305e-02,
          -3.83551307e-02, -2.53551826e-02, -1.02483621e-02,
          4.98010963e-02, 6.70658052e-03, 1.74870379e-02, 1.49697121e-02,
          5.57719171e-02, 3.96265946e-02, 4.42810217e-03,
          -2.96857413e-02, -4.45884056e-02, -1.44824339e-03,
          -8.58330876e-02, 1.03536099e-01, 4.02514152e-02,
          -1.53563721e-02, -1.83674991e-02, -3.87234651e-02,
          -6.48398176e-02, 3.38283591e-02, -1.58285664e-03,
          3.41305770e-02, 2.76471488e-02, 6.26475830e-03,
          -5.00525050e-02, -5.37925512e-02, -3.39114517e-02,
          -2.11564712e-02, -2.23897118e-02, -3.48396078e-02,
          -3.56257185e-02, 1.34504005e-01, -1.06231999e-02,
          6.55412823e-02, -1.73898917e-02, 9.78611223e-03,
          -8.90613906e-03, -4.58473153e-02, 4.51066159e-02,
          1.99724063e-02, 3.22414126e-04, -3.81047949e-02,
          3.85613963e-02, 1.27601717e-02, 8.14357623e-02,
          -3.60584259e-02, -2.34467797e-02, 4.18359414e-02,
          -1.34310462e-02, -5.39121637e-03, 8.49630591e-03,
          1.56478994e-02, 7.06363171e-02, -3.79832014e-02,
          2.77008535e-03, 3.05984896e-02, -4.25873585e-02,
          1.18734576e-02, 3.21570374e-02, 5.84327243e-02,
          -8.13730583e-02, -2.61713918e-02, -1.90141462e-02,
          -4.09919210e-02, -1.73777193e-02, -3.57836448e-02,
          -4.32894891e-03, -3.96879911e-02, 4.09107702e-03,
          6.99404031e-02, 3.24260853e-02, -1.87391732e-02,
          -4.83148731e-02, -1.53192654e-02, -2.12122630e-02,
          3.42098400e-02, 7.45268688e-02, -1.69810448e-02,
          1.90667845e-02, -1.53153744e-02, 3.37885059e-02,
          -5.56249404e-03, -1.67529508e-02, -8.17157887e-03,
          8.18370581e-02, 3.96444052e-02, 2.28287913e-02, 2.20808713e-03,
          1.74590456e-03, -2.29014456e-03, -9.02182236e-03,
          3.98720009e-03, -7.13642985e-02, -6.20276295e-02,
          -3.11249457e-02, 2.18340755e-02, 2.54040100e-02,
          -4.06821184e-02, 2.75123184e-05, 4.80664574e-04,
          1.28748398e-02, -2.62455884e-02, 4.45497595e-02,
          6.96352124e-02, 1.15320981e-02, -4.60633542e-03,
          2.99145803e-02, -1.19756730e-02, -8.40222836e-03,
          3.47265303e-02, -1.31936138e-03, 3.74314673e-02,
          -1.67708173e-02, 2.10965443e-02, 7.40723312e-02,
          -2.63367314e-02, -7.30664888e-03, 1.72761977e-02,
          -3.95176336e-02, 1.88357159e-02, 8.98108725e-03,
          1.42783094e-02, 5.69976605e-02, 2.49042530e-02, 9.09867603e-03,
          -1.92628782e-02, -4.54136170e-02, 4.24092337e-02,
          7.41847679e-02, -2.56970879e-02, 2.38761902e-02,
          -2.73384210e-02, 3.31404316e-03, 1.88418776e-02,
          6.95662796e-02, 5.08429557e-02, -2.13774629e-02,
          3.06577273e-02, -1.72732566e-02, -7.87273347e-02,
          -3.05651650e-02, 1.39837968e-03, -4.18897308e-02,
          7.55328173e-03, -2.53798701e-02, -4.61900271e-02,
          -3.18957772e-03, 2.34170761e-02, 1.14010628e-02,
          2.28374656e-02, 2.44822912e-03, -1.38869463e-02,
          4.20608092e-03, -2.65448708e-02, -8.65709444e-04,
          8.37842096e-03, 5.43750636e-02, 3.98658626e-02, 1.73662137e-02,
          -2.93260906e-02, -8.77988338e-03, 3.18664797e-02,
          -4.38532978e-02, 4.85667326e-02, 3.37231755e-02,
          6.10758588e-02, -1.83860131e-03, 5.02999686e-02,
          -9.28629190e-03, 5.09763323e-02, 8.71324632e-03,
          -6.39645616e-03, 1.98498294e-02, -9.34462342e-03,
          -9.62297544e-02, 3.15918587e-02, -2.13571135e-02,
          -6.76071411e-03, 4.58638221e-02, 8.86605721e-06,
          -4.23328206e-02, 4.64423280e-03, -4.82230596e-02,
          1.51596498e-04, 2.76646949e-02, 9.99975950e-03,
          -1.74612496e-02, 7.83140678e-03, 2.75067836e-02,
          9.84502863e-03, -4.40791622e-02, 8.78526550e-03,
          1.93390828e-02, 2.64659915e-02, 2.34684609e-02, 2.87459437e-02,
          -2.09966078e-02, -3.77651826e-02, 3.31938826e-03,
          9.83728189e-03, 1.84765140e-05, 2.54163425e-02, 1.24527076e-02,
          -4.10172269e-02, 1.80789307e-02, 1.51808336e-02,
          -1.50915224e-03, 3.69290356e-03, -1.57818068e-02,
          -1.53940255e-02, 1.07879350e-02, 4.47197445e-02,
          -1.45754889e-02, 3.48171815e-02, 3.53867337e-02,
          -2.53573451e-02, 8.17480497e-03, 1.47234427e-03,
          1.81227475e-02, -2.43026055e-02, -7.48469820e-03,
          -7.80761801e-03, -1.25412215e-02, 4.43468383e-03,
          6.60454761e-03, 1.49742430e-02, 1.77855417e-02, 8.67480971e-03,
          -1.00834789e-02, 4.12326977e-02, -1.68235488e-02,
          6.81426888e-03, -1.07860407e-02, -1.29115367e-02,
          5.51151903e-03, -3.13150994e-02, -7.05165463e-03,
          1.76302046e-02, 5.95280016e-03, 1.29427863e-02, 5.84191177e-04,
          1.57496780e-02, 1.29944868e-02, -2.62281969e-02,
          -2.84478292e-02, 6.09687343e-03, 1.29341073e-02,
          4.13595187e-03, 2.60662679e-02, -3.36617567e-02,
          -1.02515202e-02, 1.60654970e-02, -2.00840347e-02,
          -7.75894802e-03, -2.39883061e-03, -5.75701986e-03,
          1.22685013e-02, 3.11006233e-02, -1.13144470e-02,
          -2.70796269e-02, 4.85175708e-03, 6.04657503e-03,
          2.66880356e-02, -1.80754382e-02, -1.87124386e-02,
          2.00140756e-03, -1.29619762e-02, -1.81672405e-02,
          3.89240123e-02, 9.01850034e-03, -1.87719031e-03,
          1.53361019e-02, -6.27075380e-04, -2.15878710e-03,
          -1.69555321e-02, 1.93127580e-02, 2.74594463e-02,
          -1.63408916e-03, -1.26506118e-02, 3.11796330e-02,
          7.65567238e-05, 1.12946890e-02, 4.12926003e-02,
          -6.59004832e-03, -3.30751715e-03, 4.02098335e-03,
          2.91369800e-02, 1.95059204e-03, 1.78135037e-02,
          -6.34165364e-04, -1.57144163e-02, 3.01962476e-02,
          -2.69276509e-03, 1.60837341e-02, -1.25334393e-02,
          6.44053239e-03, -2.19502933e-02, -1.77188925e-02,
          -1.71740577e-02, 1.51091423e-02, -2.67185997e-02,
          8.43855459e-03, 7.49183912e-03, -6.91771135e-03,
          -1.09716030e-02, 7.34244566e-03, 2.83353664e-02,
          2.10001729e-02, -2.16112495e-03, -7.63495127e-03,
          1.43132405e-02, 1.82984602e-02, 2.82883993e-03, 1.30670657e-02,
          -1.74193289e-02, 1.60888415e-02, -1.05628781e-02,
          2.15072297e-02, -1.84959602e-02, -4.47378872e-04,
          -1.46518340e-02, 1.51813887e-02, -2.48933490e-02,
          1.74530502e-02, 7.94720184e-03, -1.65655836e-02,
          1.78728141e-02, 6.72703795e-03, 1.96184474e-03,
          -5.97566832e-03, 1.64293721e-02, -4.84865531e-03,
          1.33946501e-02, -3.65309347e-03, -1.84289017e-03,
          3.69079150e-02, 7.47139711e-05, 3.44093586e-03, 2.46997811e-02,
          -2.15062555e-02, 7.19102332e-03, -1.81011986e-02,
          -8.53425171e-03, -1.66080240e-02, 1.96510041e-03,
          7.18315551e-03, -1.62446294e-02, -1.09746922e-02,
          -1.20822212e-03, 1.81631409e-02, -1.14573073e-03,
          -8.25763214e-03, -6.72458345e-03, 4.18981723e-03,
          9.68051702e-03, -4.48191306e-03, -2.05094134e-03,
          -1.61528809e-03, -1.31342132e-02, 1.29295159e-02,
          2.02335566e-02, 6.27192343e-03, -2.56405765e-04,
          -6.50673592e-03, -7.70469662e-03, -4.25770925e-03,
          5.33143058e-03, -6.73177710e-04, 1.17927492e-02,
          1.11827580e-02, -1.77991154e-04, -1.93992332e-02,
          6.05386356e-03, 1.07049476e-03, -1.17721297e-02,
          -4.55075782e-03, -1.38171588e-03, 3.93360574e-03,
          -1.61562096e-02, -3.02734021e-02 ]
   decision_functions:
      -
         sv_count: 1
         rho: -1.5710624177349722e-01
         alpha: [ 1. ]
         index: [ 0 ]
